<?xml version="1.0"?>
<opencv_storage>
<opencv_ml_boost>
  <format>3</format>
  <is_classifier>1</is_classifier>
  <var_all>130</var_all>
  <var_count>129</var_count>
  <ord_var_count>129</ord_var_count>
  <cat_var_count>1</cat_var_count>
  <training_params>
    <boosting_type>RealAdaboost</boosting_type>
    <use_surrogates>0</use_surrogates>
    <max_categories>10</max_categories>
    <regression_accuracy>9.9999997764825821e-03</regression_accuracy>
    <max_depth>1</max_depth>
    <min_sample_count>10</min_sample_count>
    <cross_validation_folds>0</cross_validation_folds>
    <weight_trimming_rate>9.0000000000000002e-01</weight_trimming_rate></training_params>
  <global_var_idx>1</global_var_idx>
  <var_idx>
    0 1 2 3 4 5 6 7 8 9 10 11 12 13 14 15 16 17 18 19 20 21 22 23 24 25
    26 27 28 29 30 31 32 33 34 35 36 37 38 39 40 41 42 43 44 45 46 47 48
    49 50 51 52 53 54 55 56 57 58 59 60 61 62 63 64 65 66 67 68 69 70 71
    72 73 74 75 76 77 78 79 80 81 82 83 84 85 86 87 88 89 90 91 92 93 94
    95 96 97 98 99 100 101 102 103 104 105 106 107 108 109 110 111 112
    113 114 115 116 117 118 119 120 121 122 123 124 125 126 127 128</var_idx>
  <var_type>
    0 0 0 0 0 0 0 0 0 0 0 0 0 0 0 0 0 0 0 0 0 0 0 0 0 0 0 0 0 0 0 0 0 0
    0 0 0 0 0 0 0 0 0 0 0 0 0 0 0 0 0 0 0 0 0 0 0 0 0 0 0 0 0 0 0 0 0 0
    0 0 0 0 0 0 0 0 0 0 0 0 0 0 0 0 0 0 0 0 0 0 0 0 0 0 0 0 0 0 0 0 0 0
    0 0 0 0 0 0 0 0 0 0 0 0 0 0 0 0 0 0 0 0 0 0 0 0 0 0 0 1</var_type>
  <cat_ofs>
    0 0 0 0 0 0 0 0 0 0 0 0 0 0 0 0 0 0 0 0 0 0 0 0 0 0 0 0 0 0 0 0 0 0
    0 0 0 0 0 0 0 0 0 0 0 0 0 0 0 0 0 0 0 0 0 0 0 0 0 0 0 0 0 0 0 0 0 0
    0 0 0 0 0 0 0 0 0 0 0 0 0 0 0 0 0 0 0 0 0 0 0 0 0 0 0 0 0 0 0 0 0 0
    0 0 0 0 0 0 0 0 0 0 0 0 0 0 0 0 0 0 0 0 0 0 0 0 0 0 0 0 0 0 0 0 0 0
    0 0 0 0 0 0 0 0 0 0 0 0 0 0 0 0 0 0 0 0 0 0 0 0 0 0 0 0 0 0 0 0 0 0
    0 0 0 0 0 0 0 0 0 0 0 0 0 0 0 0 0 0 0 0 0 0 0 0 0 0 0 0 0 0 0 0 0 0
    0 0 0 0 0 0 0 0 0 0 0 0 0 0 0 0 0 0 0 0 0 0 0 0 0 0 0 0 0 0 0 0 0 0
    0 0 0 0 0 0 0 0 0 0 0 0 0 0 0 0 0 0 0 0</cat_ofs>
  <class_labels>
    0 1</class_labels>
  <missing_subst>
    0. 0. 0. 0. 0. 0. 0. 0. 0. 0. 0. 0. 0. 0. 0. 0. 0. 0. 0. 0. 0. 0. 0.
    0. 0. 0. 0. 0. 0. 0. 0. 0. 0. 0. 0. 0. 0. 0. 0. 0. 0. 0. 0. 0. 0. 0.
    0. 0. 0. 0. 0. 0. 0. 0. 0. 0. 0. 0. 0. 0. 0. 0. 0. 0. 0. 0. 0. 0. 0.
    0. 0. 0. 0. 0. 0. 0. 0. 0. 0. 0. 0. 0. 0. 0. 0. 0. 0. 0. 0. 0. 0. 0.
    0. 0. 0. 0. 0. 0. 0. 0. 0. 0. 0. 0. 0. 0. 0. 0. 0. 0. 0. 0. 0. 0. 0.
    0. 0. 0. 0. 0. 0. 0. 0. 0. 0. 0. 0. 0. 0. 0.</missing_subst>
  <ntrees>2000</ntrees>
  <trees>
    <_>
      <nodes>
        <_>
          <depth>0</depth>
          <value>0.</value>
          <splits>
            <_><var>125</var>
              <quality>2.9487115144729614e-01</quality>
              <le>5.5265579223632812e+00</le></_></splits></_>
        <_>
          <depth>1</depth>
          <value>4.6872087244909927e-01</value></_>
        <_>
          <depth>1</depth>
          <value>-8.1896712863190158e-01</value></_></nodes></_>
    <_>
      <nodes>
        <_>
          <depth>0</depth>
          <value>-1.5540857009655223e-08</value>
          <splits>
            <_><var>42</var>
              <quality>2.2191943228244781e-01</quality>
              <le>1.0862731933593750e+00</le></_></splits></_>
        <_>
          <depth>1</depth>
          <value>-1.3646836140145882e+00</value></_>
        <_>
          <depth>1</depth>
          <value>2.5851588084941446e-01</value></_></nodes></_>
    <_>
      <nodes>
        <_>
          <depth>0</depth>
          <value>6.6776736537207046e-02</value>
          <splits>
            <_><var>92</var>
              <quality>2.0274733006954193e-01</quality>
              <le>8.0143814086914062e+00</le></_></splits></_>
        <_>
          <depth>1</depth>
          <value>3.9457543892027758e-01</value></_>
        <_>
          <depth>1</depth>
          <value>-7.2446559443430958e-01</value></_></nodes></_>
    <_>
      <nodes>
        <_>
          <depth>0</depth>
          <value>-1.1616949654764199e-02</value>
          <splits>
            <_><var>30</var>
              <quality>1.2182505428791046e-01</quality>
              <le>4.8713974654674530e-02</le></_></splits></_>
        <_>
          <depth>1</depth>
          <value>1.5976927301570940e-01</value></_>
        <_>
          <depth>1</depth>
          <value>-1.0928088162403815e+00</value></_></nodes></_>
    <_>
      <nodes>
        <_>
          <depth>0</depth>
          <value>-4.5587798659482294e-02</value>
          <splits>
            <_><var>114</var>
              <quality>1.2616303563117981e-01</quality>
              <le>8.3606863021850586e-01</le></_></splits></_>
        <_>
          <depth>1</depth>
          <value>-1.0799677487424693e+00</value></_>
        <_>
          <depth>1</depth>
          <value>1.2907660769104287e-01</value></_></nodes></_>
    <_>
      <nodes>
        <_>
          <depth>0</depth>
          <value>9.9055743890768301e-03</value>
          <splits>
            <_><var>117</var>
              <quality>8.6666509509086609e-02</quality>
              <le>1.1487309634685516e-01</le></_></splits></_>
        <_>
          <depth>1</depth>
          <value>1.2220076227913751e-01</value></_>
        <_>
          <depth>1</depth>
          <value>-1.1204496571447844e+00</value></_></nodes></_>
    <_>
      <nodes>
        <_>
          <depth>0</depth>
          <value>-1.7639785908798215e-02</value>
          <splits>
            <_><var>16</var>
              <quality>9.2210881412029266e-02</quality>
              <le>4.2133464813232422e+00</le></_></splits></_>
        <_>
          <depth>1</depth>
          <value>-3.1710853054328320e-01</value></_>
        <_>
          <depth>1</depth>
          <value>3.2151079118818826e-01</value></_></nodes></_>
    <_>
      <nodes>
        <_>
          <depth>0</depth>
          <value>-9.4994370103300349e-02</value>
          <splits>
            <_><var>127</var>
              <quality>9.5921345055103302e-02</quality>
              <le>-1.9863708496093750e+01</le></_></splits></_>
        <_>
          <depth>1</depth>
          <value>-4.8510281190842686e-01</value></_>
        <_>
          <depth>1</depth>
          <value>1.7987747476230725e-01</value></_></nodes></_>
    <_>
      <nodes>
        <_>
          <depth>0</depth>
          <value>4.4288556550938565e-02</value>
          <splits>
            <_><var>85</var>
              <quality>8.9687183499336243e-02</quality>
              <le>2.3809747695922852e+00</le></_></splits></_>
        <_>
          <depth>1</depth>
          <value>-2.2771345333449775e-01</value></_>
        <_>
          <depth>1</depth>
          <value>4.2966034356083249e-01</value></_></nodes></_>
    <_>
      <nodes>
        <_>
          <depth>0</depth>
          <value>1.6830310283672135e-02</value>
          <splits>
            <_><var>97</var>
              <quality>8.4853857755661011e-02</quality>
              <le>1.2620018005371094e+01</le></_></splits></_>
        <_>
          <depth>1</depth>
          <value>1.6375479631207981e-01</value></_>
        <_>
          <depth>1</depth>
          <value>-7.0718252568320183e-01</value></_></nodes></_>
    <_>
      <nodes>
        <_>
          <depth>0</depth>
          <value>-5.6464794394991302e-02</value>
          <splits>
            <_><var>126</var>
              <quality>7.6485082507133484e-02</quality>
              <le>4.9618919372558594e+01</le></_></splits></_>
        <_>
          <depth>1</depth>
          <value>-1.6261144663344504e-01</value></_>
        <_>
          <depth>1</depth>
          <value>9.1664598705654765e-01</value></_></nodes></_>
    <_>
      <nodes>
        <_>
          <depth>0</depth>
          <value>5.8506317108672760e-02</value>
          <splits>
            <_><var>118</var>
              <quality>1.1052301526069641e-01</quality>
              <le>1.1701258271932602e-01</le></_></splits></_>
        <_>
          <depth>1</depth>
          <value>-4.7661109669148488e-01</value></_>
        <_>
          <depth>1</depth>
          <value>2.9626202133759300e-01</value></_></nodes></_>
    <_>
      <nodes>
        <_>
          <depth>0</depth>
          <value>-2.4182233795267915e-02</value>
          <splits>
            <_><var>13</var>
              <quality>6.5471902489662170e-02</quality>
              <le>-1.1277580261230469e+00</le></_></splits></_>
        <_>
          <depth>1</depth>
          <value>4.6722575784430903e-01</value></_>
        <_>
          <depth>1</depth>
          <value>-1.8152629926456734e-01</value></_></nodes></_>
    <_>
      <nodes>
        <_>
          <depth>0</depth>
          <value>1.3915651852907638e-03</value>
          <splits>
            <_><var>109</var>
              <quality>5.6551750749349594e-02</quality>
              <le>1.7403326928615570e-02</le></_></splits></_>
        <_>
          <depth>1</depth>
          <value>-7.6164586590431749e-01</value></_>
        <_>
          <depth>1</depth>
          <value>9.7818153728926452e-02</value></_></nodes></_>
    <_>
      <nodes>
        <_>
          <depth>0</depth>
          <value>-1.4260923811427193e-02</value>
          <splits>
            <_><var>56</var>
              <quality>5.6790944188833237e-02</quality>
              <le>-1.3101320266723633e+00</le></_></splits></_>
        <_>
          <depth>1</depth>
          <value>5.9471795499428382e-01</value></_>
        <_>
          <depth>1</depth>
          <value>-1.2925526727615969e-01</value></_></nodes></_>
    <_>
      <nodes>
        <_>
          <depth>0</depth>
          <value>1.2425270434318356e-02</value>
          <splits>
            <_><var>49</var>
              <quality>5.0156828016042709e-02</quality>
              <le>1.5968551635742188e+00</le></_></splits></_>
        <_>
          <depth>1</depth>
          <value>-1.1690451104865536e+00</value></_>
        <_>
          <depth>1</depth>
          <value>7.8697791729785277e-02</value></_></nodes></_>
    <_>
      <nodes>
        <_>
          <depth>0</depth>
          <value>-7.5400450055565808e-03</value>
          <splits>
            <_><var>112</var>
              <quality>8.9633487164974213e-02</quality>
              <le>1.0648446083068848e+00</le></_></splits></_>
        <_>
          <depth>1</depth>
          <value>9.2110713594721350e-01</value></_>
        <_>
          <depth>1</depth>
          <value>-1.4319588358602911e-01</value></_></nodes></_>
    <_>
      <nodes>
        <_>
          <depth>0</depth>
          <value>4.9754961807109681e-03</value>
          <splits>
            <_><var>34</var>
              <quality>7.8152477741241455e-02</quality>
              <le>2.0020912587642670e-01</le></_></splits></_>
        <_>
          <depth>1</depth>
          <value>-6.4807614223128829e-01</value></_>
        <_>
          <depth>1</depth>
          <value>1.5608227172988168e-01</value></_></nodes></_>
    <_>
      <nodes>
        <_>
          <depth>0</depth>
          <value>2.4125292425368323e-03</value>
          <splits>
            <_><var>11</var>
              <quality>6.5816961228847504e-02</quality>
              <le>3.6269335746765137e+00</le></_></splits></_>
        <_>
          <depth>1</depth>
          <value>-3.9843959013747721e-01</value></_>
        <_>
          <depth>1</depth>
          <value>1.9667865731510162e-01</value></_></nodes></_>
    <_>
      <nodes>
        <_>
          <depth>0</depth>
          <value>-9.6370322781956803e-03</value>
          <splits>
            <_><var>68</var>
              <quality>4.1126687079668045e-02</quality>
              <le>-7.7060675621032715e-01</le></_></splits></_>
        <_>
          <depth>1</depth>
          <value>1.1987909865350310e+00</value></_>
        <_>
          <depth>1</depth>
          <value>-6.3821811001635198e-02</value></_></nodes></_>
    <_>
      <nodes>
        <_>
          <depth>0</depth>
          <value>7.2896385939216846e-03</value>
          <splits>
            <_><var>97</var>
              <quality>6.9467455148696899e-02</quality>
              <le>1.2877403259277344e+01</le></_></splits></_>
        <_>
          <depth>1</depth>
          <value>1.3366811016905508e-01</value></_>
        <_>
          <depth>1</depth>
          <value>-7.0320084865400800e-01</value></_></nodes></_>
    <_>
      <nodes>
        <_>
          <depth>0</depth>
          <value>-9.4956599553009599e-03</value>
          <splits>
            <_><var>107</var>
              <quality>4.8533458262681961e-02</quality>
              <le>1.3994958877563477e+01</le></_></splits></_>
        <_>
          <depth>1</depth>
          <value>-7.0345275119314571e-02</value></_>
        <_>
          <depth>1</depth>
          <value>1.3625942726702533e+00</value></_></nodes></_>
    <_>
      <nodes>
        <_>
          <depth>0</depth>
          <value>4.7698371491736507e-03</value>
          <splits>
            <_><var>56</var>
              <quality>5.2553631365299225e-02</quality>
              <le>-2.8955721855163574e-01</le></_></splits></_>
        <_>
          <depth>1</depth>
          <value>2.0828836325019653e-01</value></_>
        <_>
          <depth>1</depth>
          <value>-2.9430042918214955e-01</value></_></nodes></_>
    <_>
      <nodes>
        <_>
          <depth>0</depth>
          <value>-5.3246009544998356e-03</value>
          <splits>
            <_><var>97</var>
              <quality>3.9343599230051041e-02</quality>
              <le>2.4336419105529785e+00</le></_></splits></_>
        <_>
          <depth>1</depth>
          <value>-1.8575357809754103e+00</value></_>
        <_>
          <depth>1</depth>
          <value>4.0665488221806489e-02</value></_></nodes></_>
    <_>
      <nodes>
        <_>
          <depth>0</depth>
          <value>-6.9768231213404553e-04</value>
          <splits>
            <_><var>127</var>
              <quality>5.6662235409021378e-02</quality>
              <le>-1.0469336509704590e+01</le></_></splits></_>
        <_>
          <depth>1</depth>
          <value>-1.1722102000591673e-01</value></_>
        <_>
          <depth>1</depth>
          <value>6.0691486223994540e-01</value></_></nodes></_>
    <_>
      <nodes>
        <_>
          <depth>0</depth>
          <value>-1.9754600548578468e-05</value>
          <splits>
            <_><var>85</var>
              <quality>5.4342407733201981e-02</quality>
              <le>1.7856411933898926e+00</le></_></splits></_>
        <_>
          <depth>1</depth>
          <value>-3.4093983232139036e-01</value></_>
        <_>
          <depth>1</depth>
          <value>1.8602007220910249e-01</value></_></nodes></_>
    <_>
      <nodes>
        <_>
          <depth>0</depth>
          <value>1.2998687961101667e-02</value>
          <splits>
            <_><var>97</var>
              <quality>4.8949167132377625e-02</quality>
              <le>1.4606342315673828e+01</le></_></splits></_>
        <_>
          <depth>1</depth>
          <value>9.5165194555152890e-02</value></_>
        <_>
          <depth>1</depth>
          <value>-7.7398757680768193e-01</value></_></nodes></_>
    <_>
      <nodes>
        <_>
          <depth>0</depth>
          <value>-1.5215080682051199e-03</value>
          <splits>
            <_><var>125</var>
              <quality>4.9042299389839172e-02</quality>
              <le>1.4716216325759888e+00</le></_></splits></_>
        <_>
          <depth>1</depth>
          <value>-1.4340893390998934e+00</value></_>
        <_>
          <depth>1</depth>
          <value>5.9654977844289879e-02</value></_></nodes></_>
    <_>
      <nodes>
        <_>
          <depth>0</depth>
          <value>-4.1160282451744738e-04</value>
          <splits>
            <_><var>93</var>
              <quality>4.3792918324470520e-02</quality>
              <le>1.4144019782543182e-01</le></_></splits></_>
        <_>
          <depth>1</depth>
          <value>-2.0082388708125509e-01</value></_>
        <_>
          <depth>1</depth>
          <value>2.5079649466303466e-01</value></_></nodes></_>
    <_>
      <nodes>
        <_>
          <depth>0</depth>
          <value>-1.1757307041923489e-02</value>
          <splits>
            <_><var>116</var>
              <quality>4.5552209019660950e-02</quality>
              <le>5.0206449814140797e-03</le></_></splits></_>
        <_>
          <depth>1</depth>
          <value>-6.7161771187639163e-01</value></_>
        <_>
          <depth>1</depth>
          <value>7.6292304070290001e-02</value></_></nodes></_>
    <_>
      <nodes>
        <_>
          <depth>0</depth>
          <value>5.4296808963453253e-03</value>
          <splits>
            <_><var>74</var>
              <quality>4.1192490607500076e-02</quality>
              <le>1.0544550418853760e-01</le></_></splits></_>
        <_>
          <depth>1</depth>
          <value>1.1559535462287344e-01</value></_>
        <_>
          <depth>1</depth>
          <value>-4.3766674670053662e-01</value></_></nodes></_>
    <_>
      <nodes>
        <_>
          <depth>0</depth>
          <value>7.6293211933395402e-03</value>
          <splits>
            <_><var>39</var>
              <quality>4.3077312409877777e-02</quality>
              <le>4.0071392059326172e+00</le></_></splits></_>
        <_>
          <depth>1</depth>
          <value>2.2612630040335888e-01</value></_>
        <_>
          <depth>1</depth>
          <value>-2.1844029833981504e-01</value></_></nodes></_>
    <_>
      <nodes>
        <_>
          <depth>0</depth>
          <value>-7.1061473267964928e-03</value>
          <splits>
            <_><var>125</var>
              <quality>3.8153190165758133e-02</quality>
              <le>5.5347638130187988e+00</le></_></splits></_>
        <_>
          <depth>1</depth>
          <value>-1.8515990839397692e-01</value></_>
        <_>
          <depth>1</depth>
          <value>2.3787142050057644e-01</value></_></nodes></_>
    <_>
      <nodes>
        <_>
          <depth>0</depth>
          <value>9.1737374776122930e-03</value>
          <splits>
            <_><var>126</var>
              <quality>5.2076380699872971e-02</quality>
              <le>1.6080036163330078e+01</le></_></splits></_>
        <_>
          <depth>1</depth>
          <value>2.7317431074335674e-01</value></_>
        <_>
          <depth>1</depth>
          <value>-2.1873812484122865e-01</value></_></nodes></_>
    <_>
      <nodes>
        <_>
          <depth>0</depth>
          <value>1.6271560932926445e-03</value>
          <splits>
            <_><var>85</var>
              <quality>5.3775083273649216e-02</quality>
              <le>2.8963031768798828e+00</le></_></splits></_>
        <_>
          <depth>1</depth>
          <value>-1.5875862931419235e-01</value></_>
        <_>
          <depth>1</depth>
          <value>3.9684436492850983e-01</value></_></nodes></_>
    <_>
      <nodes>
        <_>
          <depth>0</depth>
          <value>6.8987731403575151e-03</value>
          <splits>
            <_><var>71</var>
              <quality>4.3779544532299042e-02</quality>
              <le>6.2687153816223145e+00</le></_></splits></_>
        <_>
          <depth>1</depth>
          <value>2.5785972747167635e-01</value></_>
        <_>
          <depth>1</depth>
          <value>-1.9341183790558847e-01</value></_></nodes></_>
    <_>
      <nodes>
        <_>
          <depth>0</depth>
          <value>-1.3535017621983022e-02</value>
          <splits>
            <_><var>116</var>
              <quality>3.5265304148197174e-02</quality>
              <le>3.0555775389075279e-02</le></_></splits></_>
        <_>
          <depth>1</depth>
          <value>7.9769682937760850e-02</value></_>
        <_>
          <depth>1</depth>
          <value>-4.6275890062647246e-01</value></_></nodes></_>
    <_>
      <nodes>
        <_>
          <depth>0</depth>
          <value>-5.3318370589166815e-04</value>
          <splits>
            <_><var>20</var>
              <quality>3.4403089433908463e-02</quality>
              <le>1.0402686595916748e+00</le></_></splits></_>
        <_>
          <depth>1</depth>
          <value>-5.3818121358933019e-02</value></_>
        <_>
          <depth>1</depth>
          <value>9.0268110337479102e-01</value></_></nodes></_>
    <_>
      <nodes>
        <_>
          <depth>0</depth>
          <value>6.5205681713285989e-03</value>
          <splits>
            <_><var>127</var>
              <quality>4.0874682366847992e-02</quality>
              <le>-1.6088687896728516e+01</le></_></splits></_>
        <_>
          <depth>1</depth>
          <value>-1.8976920124025326e-01</value></_>
        <_>
          <depth>1</depth>
          <value>2.4516058683723635e-01</value></_></nodes></_>
    <_>
      <nodes>
        <_>
          <depth>0</depth>
          <value>-2.7965412752480531e-03</value>
          <splits>
            <_><var>59</var>
              <quality>4.1892517358064651e-02</quality>
              <le>2.9019069671630859e+00</le></_></splits></_>
        <_>
          <depth>1</depth>
          <value>-3.7002945700430756e-01</value></_>
        <_>
          <depth>1</depth>
          <value>1.3045139147800164e-01</value></_></nodes></_>
    <_>
      <nodes>
        <_>
          <depth>0</depth>
          <value>-7.8229366604044706e-04</value>
          <splits>
            <_><var>48</var>
              <quality>3.7552371621131897e-02</quality>
              <le>-1.3782992362976074e+00</le></_></splits></_>
        <_>
          <depth>1</depth>
          <value>-4.2680224198183830e-01</value></_>
        <_>
          <depth>1</depth>
          <value>1.0341362466608216e-01</value></_></nodes></_>
    <_>
      <nodes>
        <_>
          <depth>0</depth>
          <value>-6.5356189326103526e-03</value>
          <splits>
            <_><var>118</var>
              <quality>3.2553464174270630e-02</quality>
              <le>4.9242503941059113e-02</le></_></splits></_>
        <_>
          <depth>1</depth>
          <value>-1.6839960170744841e+00</value></_>
        <_>
          <depth>1</depth>
          <value>3.2446371829841267e-02</value></_></nodes></_>
    <_>
      <nodes>
        <_>
          <depth>0</depth>
          <value>-9.7129199858361553e-04</value>
          <splits>
            <_><var>117</var>
              <quality>3.2576680183410645e-02</quality>
              <le>5.9885293245315552e-02</le></_></splits></_>
        <_>
          <depth>1</depth>
          <value>1.3782079898793170e-01</value></_>
        <_>
          <depth>1</depth>
          <value>-2.6979074204055098e-01</value></_></nodes></_>
    <_>
      <nodes>
        <_>
          <depth>0</depth>
          <value>-1.1961944683686004e-03</value>
          <splits>
            <_><var>70</var>
              <quality>3.6313042044639587e-02</quality>
              <le>9.5559015274047852e+00</le></_></splits></_>
        <_>
          <depth>1</depth>
          <value>4.9264262745931674e-02</value></_>
        <_>
          <depth>1</depth>
          <value>-1.1027807883997742e+00</value></_></nodes></_>
    <_>
      <nodes>
        <_>
          <depth>0</depth>
          <value>-3.3659674414714836e-03</value>
          <splits>
            <_><var>88</var>
              <quality>3.6606352776288986e-02</quality>
              <le>6.0241985321044922e-01</le></_></splits></_>
        <_>
          <depth>1</depth>
          <value>-7.6769608178646573e-02</value></_>
        <_>
          <depth>1</depth>
          <value>6.2090144514944867e-01</value></_></nodes></_>
    <_>
      <nodes>
        <_>
          <depth>0</depth>
          <value>1.6801946010507596e-03</value>
          <splits>
            <_><var>38</var>
              <quality>3.3903148025274277e-02</quality>
              <le>-6.3614755868911743e-01</le></_></splits></_>
        <_>
          <depth>1</depth>
          <value>4.0143966741596521e-01</value></_>
        <_>
          <depth>1</depth>
          <value>-9.7897014263190904e-02</value></_></nodes></_>
    <_>
      <nodes>
        <_>
          <depth>0</depth>
          <value>2.6558644132222507e-03</value>
          <splits>
            <_><var>8</var>
              <quality>3.1147582456469536e-02</quality>
              <le>-1.3400355577468872e+00</le></_></splits></_>
        <_>
          <depth>1</depth>
          <value>1.9463393576832708e-01</value></_>
        <_>
          <depth>1</depth>
          <value>-1.8188585566929369e-01</value></_></nodes></_>
    <_>
      <nodes>
        <_>
          <depth>0</depth>
          <value>-3.5431988466860819e-03</value>
          <splits>
            <_><var>17</var>
              <quality>3.0374594032764435e-02</quality>
              <le>4.6405783295631409e-01</le></_></splits></_>
        <_>
          <depth>1</depth>
          <value>-1.2363498080164974e-01</value></_>
        <_>
          <depth>1</depth>
          <value>2.8644457422764813e-01</value></_></nodes></_>
    <_>
      <nodes>
        <_>
          <depth>0</depth>
          <value>3.5243231028502828e-03</value>
          <splits>
            <_><var>17</var>
              <quality>3.2083135098218918e-02</quality>
              <le>-5.2343249320983887e-01</le></_></splits></_>
        <_>
          <depth>1</depth>
          <value>3.6355758140670569e-01</value></_>
        <_>
          <depth>1</depth>
          <value>-1.0015814595895776e-01</value></_></nodes></_>
    <_>
      <nodes>
        <_>
          <depth>0</depth>
          <value>2.5822626305932227e-03</value>
          <splits>
            <_><var>97</var>
              <quality>3.1213395297527313e-02</quality>
              <le>1.0572751045227051e+01</le></_></splits></_>
        <_>
          <depth>1</depth>
          <value>1.0202772974963550e-01</value></_>
        <_>
          <depth>1</depth>
          <value>-3.6242520489006302e-01</value></_></nodes></_>
    <_>
      <nodes>
        <_>
          <depth>0</depth>
          <value>-5.1830683039548282e-03</value>
          <splits>
            <_><var>85</var>
              <quality>4.8038799315690994e-02</quality>
              <le>2.7623836994171143e+00</le></_></splits></_>
        <_>
          <depth>1</depth>
          <value>-1.6916758869140852e-01</value></_>
        <_>
          <depth>1</depth>
          <value>3.3541714749308360e-01</value></_></nodes></_>
    <_>
      <nodes>
        <_>
          <depth>0</depth>
          <value>4.7517016567482466e-03</value>
          <splits>
            <_><var>37</var>
              <quality>2.9842808842658997e-02</quality>
              <le>5.8317317962646484e+00</le></_></splits></_>
        <_>
          <depth>1</depth>
          <value>9.5182710581124069e-02</value></_>
        <_>
          <depth>1</depth>
          <value>-3.8017106198609996e-01</value></_></nodes></_>
    <_>
      <nodes>
        <_>
          <depth>0</depth>
          <value>-4.5018753720741421e-03</value>
          <splits>
            <_><var>96</var>
              <quality>3.6240316927433014e-02</quality>
              <le>3.7162017822265625e+00</le></_></splits></_>
        <_>
          <depth>1</depth>
          <value>-5.8287894476480757e-02</value></_>
        <_>
          <depth>1</depth>
          <value>9.6115157155796516e-01</value></_></nodes></_>
    <_>
      <nodes>
        <_>
          <depth>0</depth>
          <value>1.5325894257513745e-03</value>
          <splits>
            <_><var>73</var>
              <quality>2.8619099408388138e-02</quality>
              <le>6.8319760262966156e-02</le></_></splits></_>
        <_>
          <depth>1</depth>
          <value>3.5721282492772080e-02</value></_>
        <_>
          <depth>1</depth>
          <value>-1.6504257535520344e+00</value></_></nodes></_>
    <_>
      <nodes>
        <_>
          <depth>0</depth>
          <value>-2.8287479220762276e-04</value>
          <splits>
            <_><var>84</var>
              <quality>2.6843730360269547e-02</quality>
              <le>-4.6644935607910156e+00</le></_></splits></_>
        <_>
          <depth>1</depth>
          <value>3.1736321256943568e-02</value></_>
        <_>
          <depth>1</depth>
          <value>-1.6745388640834391e+00</value></_></nodes></_>
    <_>
      <nodes>
        <_>
          <depth>0</depth>
          <value>2.4055637588939450e-03</value>
          <splits>
            <_><var>126</var>
              <quality>4.8015825450420380e-02</quality>
              <le>9.3917856216430664e+00</le></_></splits></_>
        <_>
          <depth>1</depth>
          <value>6.7942830941497789e-01</value></_>
        <_>
          <depth>1</depth>
          <value>-8.8443451292918529e-02</value></_></nodes></_>
    <_>
      <nodes>
        <_>
          <depth>0</depth>
          <value>-1.1548377782425424e-03</value>
          <splits>
            <_><var>117</var>
              <quality>3.2940160483121872e-02</quality>
              <le>9.0877071022987366e-02</le></_></splits></_>
        <_>
          <depth>1</depth>
          <value>8.6564381930724299e-02</value></_>
        <_>
          <depth>1</depth>
          <value>-4.4703467211585002e-01</value></_></nodes></_>
    <_>
      <nodes>
        <_>
          <depth>0</depth>
          <value>-5.3056042355092048e-04</value>
          <splits>
            <_><var>56</var>
              <quality>3.2108213752508163e-02</quality>
              <le>7.4498975276947021e-01</le></_></splits></_>
        <_>
          <depth>1</depth>
          <value>9.7078039932858490e-02</value></_>
        <_>
          <depth>1</depth>
          <value>-3.8519047720698579e-01</value></_></nodes></_>
    <_>
      <nodes>
        <_>
          <depth>0</depth>
          <value>-5.2280607637462560e-03</value>
          <splits>
            <_><var>109</var>
              <quality>3.7191469222307205e-02</quality>
              <le>-2.5503295660018921e-01</le></_></splits></_>
        <_>
          <depth>1</depth>
          <value>-1.0356136112858216e+00</value></_>
        <_>
          <depth>1</depth>
          <value>4.8381600260285290e-02</value></_></nodes></_>
    <_>
      <nodes>
        <_>
          <depth>0</depth>
          <value>1.4794893639854314e-04</value>
          <splits>
            <_><var>6</var>
              <quality>2.9166623950004578e-02</quality>
              <le>2.3158650398254395e+00</le></_></splits></_>
        <_>
          <depth>1</depth>
          <value>-4.6081294967823988e-01</value></_>
        <_>
          <depth>1</depth>
          <value>7.5504900319442070e-02</value></_></nodes></_>
    <_>
      <nodes>
        <_>
          <depth>0</depth>
          <value>2.0180888868150050e-03</value>
          <splits>
            <_><var>13</var>
              <quality>3.2278608530759811e-02</quality>
              <le>-9.2015963792800903e-01</le></_></splits></_>
        <_>
          <depth>1</depth>
          <value>2.5189935605610636e-01</value></_>
        <_>
          <depth>1</depth>
          <value>-1.4556504381687796e-01</value></_></nodes></_>
    <_>
      <nodes>
        <_>
          <depth>0</depth>
          <value>-5.1081616638095602e-03</value>
          <splits>
            <_><var>12</var>
              <quality>3.5668071359395981e-02</quality>
              <le>6.6415202617645264e-01</le></_></splits></_>
        <_>
          <depth>1</depth>
          <value>-1.0201791719741302e-01</value></_>
        <_>
          <depth>1</depth>
          <value>4.2969520851509102e-01</value></_></nodes></_>
    <_>
      <nodes>
        <_>
          <depth>0</depth>
          <value>4.2899733130291294e-03</value>
          <splits>
            <_><var>33</var>
              <quality>3.0582116916775703e-02</quality>
              <le>2.6272362470626831e-01</le></_></splits></_>
        <_>
          <depth>1</depth>
          <value>-9.5189362847842393e-02</value></_>
        <_>
          <depth>1</depth>
          <value>3.6166185488392399e-01</value></_></nodes></_>
    <_>
      <nodes>
        <_>
          <depth>0</depth>
          <value>-1.8634098161766743e-03</value>
          <splits>
            <_><var>77</var>
              <quality>2.9438612982630730e-02</quality>
              <le>1.9049990177154541e-01</le></_></splits></_>
        <_>
          <depth>1</depth>
          <value>-5.3261141347843377e-01</value></_>
        <_>
          <depth>1</depth>
          <value>6.5599125336660832e-02</value></_></nodes></_>
    <_>
      <nodes>
        <_>
          <depth>0</depth>
          <value>2.3480255491563646e-03</value>
          <splits>
            <_><var>84</var>
              <quality>2.7725918218493462e-02</quality>
              <le>-2.0604159545898438e+02</le></_></splits></_>
        <_>
          <depth>1</depth>
          <value>1.7746181665083878e+00</value></_>
        <_>
          <depth>1</depth>
          <value>-3.0369836315113054e-02</value></_></nodes></_>
    <_>
      <nodes>
        <_>
          <depth>0</depth>
          <value>2.9177873923204871e-03</value>
          <splits>
            <_><var>102</var>
              <quality>5.0227928906679153e-02</quality>
              <le>1.0380580902099609e+01</le></_></splits></_>
        <_>
          <depth>1</depth>
          <value>9.4719045446926650e-02</value></_>
        <_>
          <depth>1</depth>
          <value>-7.0390408287545214e-01</value></_></nodes></_>
    <_>
      <nodes>
        <_>
          <depth>0</depth>
          <value>-2.6930944504933848e-03</value>
          <splits>
            <_><var>31</var>
              <quality>3.3381771296262741e-02</quality>
              <le>1.0696485638618469e-01</le></_></splits></_>
        <_>
          <depth>1</depth>
          <value>1.2399835742972451e-01</value></_>
        <_>
          <depth>1</depth>
          <value>-3.0611587895847348e-01</value></_></nodes></_>
    <_>
      <nodes>
        <_>
          <depth>0</depth>
          <value>-3.8697976176364506e-03</value>
          <splits>
            <_><var>115</var>
              <quality>2.9921302571892738e-02</quality>
              <le>1.8456184864044189e+00</le></_></splits></_>
        <_>
          <depth>1</depth>
          <value>3.0315408867972470e-02</value></_>
        <_>
          <depth>1</depth>
          <value>-2.2129351283130139e+00</value></_></nodes></_>
    <_>
      <nodes>
        <_>
          <depth>0</depth>
          <value>1.3540793410692913e-03</value>
          <splits>
            <_><var>11</var>
              <quality>2.9691029340028763e-02</quality>
              <le>4.4914045333862305e+00</le></_></splits></_>
        <_>
          <depth>1</depth>
          <value>-1.6887640128916157e-01</value></_>
        <_>
          <depth>1</depth>
          <value>1.9960230780234831e-01</value></_></nodes></_>
    <_>
      <nodes>
        <_>
          <depth>0</depth>
          <value>-3.3341641409858408e-03</value>
          <splits>
            <_><var>121</var>
              <quality>3.0450601130723953e-02</quality>
              <le>1.1006286740303040e-01</le></_></splits></_>
        <_>
          <depth>1</depth>
          <value>5.4826024909808557e-01</value></_>
        <_>
          <depth>1</depth>
          <value>-7.0764279456975221e-02</value></_></nodes></_>
    <_>
      <nodes>
        <_>
          <depth>0</depth>
          <value>1.1386980090366036e-03</value>
          <splits>
            <_><var>33</var>
              <quality>2.9407020658254623e-02</quality>
              <le>3.7490916252136230e-01</le></_></splits></_>
        <_>
          <depth>1</depth>
          <value>3.5624480911948961e-02</value></_>
        <_>
          <depth>1</depth>
          <value>-1.8003542212554677e+00</value></_></nodes></_>
    <_>
      <nodes>
        <_>
          <depth>0</depth>
          <value>5.0333988608782613e-05</value>
          <splits>
            <_><var>56</var>
              <quality>3.0545925721526146e-02</quality>
              <le>-1.2803918123245239e+00</le></_></splits></_>
        <_>
          <depth>1</depth>
          <value>4.5291935079185131e-01</value></_>
        <_>
          <depth>1</depth>
          <value>-8.0129182882081970e-02</value></_></nodes></_>
    <_>
      <nodes>
        <_>
          <depth>0</depth>
          <value>-1.9525471194668932e-03</value>
          <splits>
            <_><var>117</var>
              <quality>3.0670555308461189e-02</quality>
              <le>1.5430222451686859e-01</le></_></splits></_>
        <_>
          <depth>1</depth>
          <value>3.6468523069149647e-02</value></_>
        <_>
          <depth>1</depth>
          <value>-1.4184613808900917e+00</value></_></nodes></_>
    <_>
      <nodes>
        <_>
          <depth>0</depth>
          <value>-1.8744672023039165e-04</value>
          <splits>
            <_><var>8</var>
              <quality>2.6595918461680412e-02</quality>
              <le>-1.7232626676559448e+00</le></_></splits></_>
        <_>
          <depth>1</depth>
          <value>3.9064566706334236e-01</value></_>
        <_>
          <depth>1</depth>
          <value>-7.9782016046776566e-02</value></_></nodes></_>
    <_>
      <nodes>
        <_>
          <depth>0</depth>
          <value>-8.8887898030592342e-04</value>
          <splits>
            <_><var>2</var>
              <quality>2.4769110605120659e-02</quality>
              <le>-3.2604023814201355e-02</le></_></splits></_>
        <_>
          <depth>1</depth>
          <value>-1.7177445025473498e-01</value></_>
        <_>
          <depth>1</depth>
          <value>1.6318168697504251e-01</value></_></nodes></_>
    <_>
      <nodes>
        <_>
          <depth>0</depth>
          <value>1.2999124871386559e-03</value>
          <splits>
            <_><var>122</var>
              <quality>2.3794554173946381e-02</quality>
              <le>-2.5611591339111328e-01</le></_></splits></_>
        <_>
          <depth>1</depth>
          <value>3.9597677632509343e-01</value></_>
        <_>
          <depth>1</depth>
          <value>-6.9275463981549476e-02</value></_></nodes></_>
    <_>
      <nodes>
        <_>
          <depth>0</depth>
          <value>1.2079150940813548e-03</value>
          <splits>
            <_><var>113</var>
              <quality>2.9267845675349236e-02</quality>
              <le>-1.5700158476829529e-01</le></_></splits></_>
        <_>
          <depth>1</depth>
          <value>-2.2653270126244218e-01</value></_>
        <_>
          <depth>1</depth>
          <value>1.4747836686477411e-01</value></_></nodes></_>
    <_>
      <nodes>
        <_>
          <depth>0</depth>
          <value>-3.4002076419840047e-03</value>
          <splits>
            <_><var>111</var>
              <quality>3.1457647681236267e-02</quality>
              <le>7.9614736139774323e-02</le></_></splits></_>
        <_>
          <depth>1</depth>
          <value>1.3702638572354811e-01</value></_>
        <_>
          <depth>1</depth>
          <value>-2.5943378274509998e-01</value></_></nodes></_>
    <_>
      <nodes>
        <_>
          <depth>0</depth>
          <value>-4.1429821769360048e-03</value>
          <splits>
            <_><var>110</var>
              <quality>3.0116753652691841e-02</quality>
              <le>1.6824526786804199e+00</le></_></splits></_>
        <_>
          <depth>1</depth>
          <value>1.2583455134835186e-01</value></_>
        <_>
          <depth>1</depth>
          <value>-2.6910469395502445e-01</value></_></nodes></_>
    <_>
      <nodes>
        <_>
          <depth>0</depth>
          <value>2.1175027604169705e-03</value>
          <splits>
            <_><var>71</var>
              <quality>2.5313651189208031e-02</quality>
              <le>9.8683959960937500e+01</le></_></splits></_>
        <_>
          <depth>1</depth>
          <value>4.8522668538165815e-02</value></_>
        <_>
          <depth>1</depth>
          <value>-7.0018253532676811e-01</value></_></nodes></_>
    <_>
      <nodes>
        <_>
          <depth>0</depth>
          <value>-3.3339920485977457e-03</value>
          <splits>
            <_><var>69</var>
              <quality>3.6666691303253174e-02</quality>
              <le>4.3949909210205078e+00</le></_></splits></_>
        <_>
          <depth>1</depth>
          <value>-1.1722328140278213e-01</value></_>
        <_>
          <depth>1</depth>
          <value>3.7233760407054484e-01</value></_></nodes></_>
    <_>
      <nodes>
        <_>
          <depth>0</depth>
          <value>9.7751065421538656e-03</value>
          <splits>
            <_><var>127</var>
              <quality>3.4998849034309387e-02</quality>
              <le>-2.7518674850463867e+01</le></_></splits></_>
        <_>
          <depth>1</depth>
          <value>-3.0346538563930925e-01</value></_>
        <_>
          <depth>1</depth>
          <value>1.3815919737458740e-01</value></_></nodes></_>
    <_>
      <nodes>
        <_>
          <depth>0</depth>
          <value>-7.6356435483114866e-03</value>
          <splits>
            <_><var>21</var>
              <quality>3.9263226091861725e-02</quality>
              <le>4.1311502456665039e+00</le></_></splits></_>
        <_>
          <depth>1</depth>
          <value>-1.4813123337728343e-01</value></_>
        <_>
          <depth>1</depth>
          <value>3.1486329000675667e-01</value></_></nodes></_>
    <_>
      <nodes>
        <_>
          <depth>0</depth>
          <value>1.9359533802405838e-03</value>
          <splits>
            <_><var>97</var>
              <quality>2.9197173193097115e-02</quality>
              <le>1.1025115966796875e+01</le></_></splits></_>
        <_>
          <depth>1</depth>
          <value>8.8078669700482115e-02</value></_>
        <_>
          <depth>1</depth>
          <value>-3.9497179003118710e-01</value></_></nodes></_>
    <_>
      <nodes>
        <_>
          <depth>0</depth>
          <value>-1.8308629508683081e-03</value>
          <splits>
            <_><var>127</var>
              <quality>2.8739454224705696e-02</quality>
              <le>-1.0004725646972656e+02</le></_></splits></_>
        <_>
          <depth>1</depth>
          <value>7.9801709237263785e-01</value></_>
        <_>
          <depth>1</depth>
          <value>-4.9909541763704671e-02</value></_></nodes></_>
    <_>
      <nodes>
        <_>
          <depth>0</depth>
          <value>3.6212420466787405e-03</value>
          <splits>
            <_><var>118</var>
              <quality>2.6285853236913681e-02</quality>
              <le>9.0342469513416290e-02</le></_></splits></_>
        <_>
          <depth>1</depth>
          <value>-3.4424675073417410e-01</value></_>
        <_>
          <depth>1</depth>
          <value>9.1054523762206047e-02</value></_></nodes></_>
    <_>
      <nodes>
        <_>
          <depth>0</depth>
          <value>-5.5150063767788002e-03</value>
          <splits>
            <_><var>30</var>
              <quality>2.7591343969106674e-02</quality>
              <le>9.5394417643547058e-02</le></_></splits></_>
        <_>
          <depth>1</depth>
          <value>2.7554739216054887e-02</value></_>
        <_>
          <depth>1</depth>
          <value>-1.6731725859650264e+00</value></_></nodes></_>
    <_>
      <nodes>
        <_>
          <depth>0</depth>
          <value>-8.0418600841322956e-04</value>
          <splits>
            <_><var>37</var>
              <quality>2.5619821622967720e-02</quality>
              <le>1.2714953422546387e+00</le></_></splits></_>
        <_>
          <depth>1</depth>
          <value>-5.7564577324601141e+00</value></_>
        <_>
          <depth>1</depth>
          <value>2.7693190098381563e-02</value></_></nodes></_>
    <_>
      <nodes>
        <_>
          <depth>0</depth>
          <value>-6.1437165285735292e-03</value>
          <splits>
            <_><var>127</var>
              <quality>3.3248994499444962e-02</quality>
              <le>-8.8266429901123047e+00</le></_></splits></_>
        <_>
          <depth>1</depth>
          <value>-6.7940112389999557e-02</value></_>
        <_>
          <depth>1</depth>
          <value>6.8099942973935745e-01</value></_></nodes></_>
    <_>
      <nodes>
        <_>
          <depth>0</depth>
          <value>4.7504502302699756e-03</value>
          <splits>
            <_><var>120</var>
              <quality>3.8402408361434937e-02</quality>
              <le>2.3325724899768829e-01</le></_></splits></_>
        <_>
          <depth>1</depth>
          <value>-2.8818975705673433e-01</value></_>
        <_>
          <depth>1</depth>
          <value>1.5551870629853815e-01</value></_></nodes></_>
    <_>
      <nodes>
        <_>
          <depth>0</depth>
          <value>-1.6641069007454947e-03</value>
          <splits>
            <_><var>116</var>
              <quality>3.1440574675798416e-02</quality>
              <le>1.4557957649230957e-02</le></_></splits></_>
        <_>
          <depth>1</depth>
          <value>-2.0234078629598962e-01</value></_>
        <_>
          <depth>1</depth>
          <value>1.7662436279222171e-01</value></_></nodes></_>
    <_>
      <nodes>
        <_>
          <depth>0</depth>
          <value>6.4863508890156355e-03</value>
          <splits>
            <_><var>124</var>
              <quality>2.3534001782536507e-02</quality>
              <le>-2.8793139383196831e-02</le></_></splits></_>
        <_>
          <depth>1</depth>
          <value>-1.6234371512607351e-01</value></_>
        <_>
          <depth>1</depth>
          <value>1.6390676935117948e-01</value></_></nodes></_>
    <_>
      <nodes>
        <_>
          <depth>0</depth>
          <value>3.4928502358383553e-04</value>
          <splits>
            <_><var>13</var>
              <quality>2.5331065058708191e-02</quality>
              <le>-1.2856850624084473e+00</le></_></splits></_>
        <_>
          <depth>1</depth>
          <value>4.5093572757514677e-01</value></_>
        <_>
          <depth>1</depth>
          <value>-6.6403976532274450e-02</value></_></nodes></_>
    <_>
      <nodes>
        <_>
          <depth>0</depth>
          <value>-2.6020473853466545e-03</value>
          <splits>
            <_><var>54</var>
              <quality>2.4139350280165672e-02</quality>
              <le>4.1525840759277344e+00</le></_></splits></_>
        <_>
          <depth>1</depth>
          <value>-2.3948586048886850e-01</value></_>
        <_>
          <depth>1</depth>
          <value>1.1326914590145798e-01</value></_></nodes></_>
    <_>
      <nodes>
        <_>
          <depth>0</depth>
          <value>5.0785008052930593e-03</value>
          <splits>
            <_><var>6</var>
              <quality>3.6201190203428268e-02</quality>
              <le>5.6985168457031250e+00</le></_></splits></_>
        <_>
          <depth>1</depth>
          <value>1.7665001579790157e-01</value></_>
        <_>
          <depth>1</depth>
          <value>-2.3601377863038964e-01</value></_></nodes></_>
    <_>
      <nodes>
        <_>
          <depth>0</depth>
          <value>-2.3918873371892892e-03</value>
          <splits>
            <_><var>74</var>
              <quality>3.1887348741292953e-02</quality>
              <le>3.0183494091033936e-02</le></_></splits></_>
        <_>
          <depth>1</depth>
          <value>4.8049028575497960e-01</value></_>
        <_>
          <depth>1</depth>
          <value>-8.1467828663898359e-02</value></_></nodes></_>
    <_>
      <nodes>
        <_>
          <depth>0</depth>
          <value>-3.1917405560516689e-03</value>
          <splits>
            <_><var>12</var>
              <quality>2.4868650361895561e-02</quality>
              <le>-4.3529462814331055e-01</le></_></splits></_>
        <_>
          <depth>1</depth>
          <value>3.1401104249567741e-01</value></_>
        <_>
          <depth>1</depth>
          <value>-9.3358913497983004e-02</value></_></nodes></_>
    <_>
      <nodes>
        <_>
          <depth>0</depth>
          <value>2.3809329106585790e-03</value>
          <splits>
            <_><var>50</var>
              <quality>2.8474204242229462e-02</quality>
              <le>-9.4931471347808838e-01</le></_></splits></_>
        <_>
          <depth>1</depth>
          <value>-6.5257871093667452e-01</value></_>
        <_>
          <depth>1</depth>
          <value>5.7382726840762205e-02</value></_></nodes></_>
    <_>
      <nodes>
        <_>
          <depth>0</depth>
          <value>-2.9050903342695113e-03</value>
          <splits>
            <_><var>49</var>
              <quality>2.8842162340879440e-02</quality>
              <le>2.1862039566040039e+00</le></_></splits></_>
        <_>
          <depth>1</depth>
          <value>-7.1258977826920933e-01</value></_>
        <_>
          <depth>1</depth>
          <value>4.9720337288055555e-02</value></_></nodes></_>
    <_>
      <nodes>
        <_>
          <depth>0</depth>
          <value>5.6274226170972682e-03</value>
          <splits>
            <_><var>55</var>
              <quality>2.6202578097581863e-02</quality>
              <le>1.5836578607559204e-01</le></_></splits></_>
        <_>
          <depth>1</depth>
          <value>-1.3761414963339158e-01</value></_>
        <_>
          <depth>1</depth>
          <value>2.1307157231272408e-01</value></_></nodes></_>
    <_>
      <nodes>
        <_>
          <depth>0</depth>
          <value>1.9908659520480360e-03</value>
          <splits>
            <_><var>87</var>
              <quality>2.9588581994175911e-02</quality>
              <le>1.8191990852355957e+00</le></_></splits></_>
        <_>
          <depth>1</depth>
          <value>4.5422824660965244e-01</value></_>
        <_>
          <depth>1</depth>
          <value>-7.5804012843017646e-02</value></_></nodes></_>
    <_>
      <nodes>
        <_>
          <depth>0</depth>
          <value>-2.0676591765479428e-03</value>
          <splits>
            <_><var>83</var>
              <quality>2.2059274837374687e-02</quality>
              <le>4.0457527160644531e+01</le></_></splits></_>
        <_>
          <depth>1</depth>
          <value>-7.2356808141938025e-02</value></_>
        <_>
          <depth>1</depth>
          <value>3.6229274994202693e-01</value></_></nodes></_>
    <_>
      <nodes>
        <_>
          <depth>0</depth>
          <value>2.4851622579763555e-03</value>
          <splits>
            <_><var>102</var>
              <quality>3.1479690223932266e-02</quality>
              <le>1.1464579582214355e+01</le></_></splits></_>
        <_>
          <depth>1</depth>
          <value>6.8428314961557546e-02</value></_>
        <_>
          <depth>1</depth>
          <value>-5.8838047750405209e-01</value></_></nodes></_>
    <_>
      <nodes>
        <_>
          <depth>0</depth>
          <value>-3.3012100469817968e-04</value>
          <splits>
            <_><var>42</var>
              <quality>2.5747977197170258e-02</quality>
              <le>2.5937206745147705e+00</le></_></splits></_>
        <_>
          <depth>1</depth>
          <value>-1.1831407562839610e-01</value></_>
        <_>
          <depth>1</depth>
          <value>2.4830585838431965e-01</value></_></nodes></_>
    <_>
      <nodes>
        <_>
          <depth>0</depth>
          <value>-2.8868596009973198e-04</value>
          <splits>
            <_><var>123</var>
              <quality>3.8056153804063797e-02</quality>
              <le>3.8915791511535645e+00</le></_></splits></_>
        <_>
          <depth>1</depth>
          <value>2.5135385808490224e-01</value></_>
        <_>
          <depth>1</depth>
          <value>-1.7358550011636975e-01</value></_></nodes></_>
    <_>
      <nodes>
        <_>
          <depth>0</depth>
          <value>-1.3090994844847817e-03</value>
          <splits>
            <_><var>26</var>
              <quality>3.1661160290241241e-02</quality>
              <le>2.0330414772033691e+00</le></_></splits></_>
        <_>
          <depth>1</depth>
          <value>-2.0325570872819998e-01</value></_>
        <_>
          <depth>1</depth>
          <value>1.7711938849228592e-01</value></_></nodes></_>
    <_>
      <nodes>
        <_>
          <depth>0</depth>
          <value>1.5624845274527645e-03</value>
          <splits>
            <_><var>17</var>
              <quality>2.9270043596625328e-02</quality>
              <le>5.0694313049316406e+00</le></_></splits></_>
        <_>
          <depth>1</depth>
          <value>3.4048121027604336e-02</value></_>
        <_>
          <depth>1</depth>
          <value>-5.7564577324601141e+00</value></_></nodes></_>
    <_>
      <nodes>
        <_>
          <depth>0</depth>
          <value>1.1375000901762541e-02</value>
          <splits>
            <_><var>3</var>
              <quality>3.5420000553131104e-02</quality>
              <le>-1.7152922153472900e+00</le></_></splits></_>
        <_>
          <depth>1</depth>
          <value>-4.6091706403457826e-02</value></_>
        <_>
          <depth>1</depth>
          <value>8.5648650949937710e-01</value></_></nodes></_>
    <_>
      <nodes>
        <_>
          <depth>0</depth>
          <value>9.8454574172849533e-04</value>
          <splits>
            <_><var>15</var>
              <quality>3.6892261356115341e-02</quality>
              <le>-6.6377687454223633e-01</le></_></splits></_>
        <_>
          <depth>1</depth>
          <value>-5.0140357569395089e-01</value></_>
        <_>
          <depth>1</depth>
          <value>8.9526129184966746e-02</value></_></nodes></_>
    <_>
      <nodes>
        <_>
          <depth>0</depth>
          <value>-1.5587085173779946e-03</value>
          <splits>
            <_><var>5</var>
              <quality>2.8193600475788116e-02</quality>
              <le>-2.9302413463592529e+00</le></_></splits></_>
        <_>
          <depth>1</depth>
          <value>-8.6840595196803938e-01</value></_>
        <_>
          <depth>1</depth>
          <value>4.3282201836080107e-02</value></_></nodes></_>
    <_>
      <nodes>
        <_>
          <depth>0</depth>
          <value>1.0370065154966304e-03</value>
          <splits>
            <_><var>60</var>
              <quality>3.2236367464065552e-02</quality>
              <le>-1.1216669082641602e+00</le></_></splits></_>
        <_>
          <depth>1</depth>
          <value>5.4681837957814805e-01</value></_>
        <_>
          <depth>1</depth>
          <value>-7.1137779530348874e-02</value></_></nodes></_>
    <_>
      <nodes>
        <_>
          <depth>0</depth>
          <value>4.1276507702552659e-03</value>
          <splits>
            <_><var>61</var>
              <quality>3.3598087728023529e-02</quality>
              <le>3.6300450563430786e-01</le></_></splits></_>
        <_>
          <depth>1</depth>
          <value>1.9943840350585568e-01</value></_>
        <_>
          <depth>1</depth>
          <value>-1.9182955613364888e-01</value></_></nodes></_>
    <_>
      <nodes>
        <_>
          <depth>0</depth>
          <value>1.8274413713961647e-03</value>
          <splits>
            <_><var>117</var>
              <quality>2.4801215156912804e-02</quality>
              <le>5.9885293245315552e-02</le></_></splits></_>
        <_>
          <depth>1</depth>
          <value>1.2600975915546817e-01</value></_>
        <_>
          <depth>1</depth>
          <value>-2.2498431570146871e-01</value></_></nodes></_>
    <_>
      <nodes>
        <_>
          <depth>0</depth>
          <value>-6.0694720774585945e-03</value>
          <splits>
            <_><var>15</var>
              <quality>2.5694351643323898e-02</quality>
              <le>2.0733620226383209e-01</le></_></splits></_>
        <_>
          <depth>1</depth>
          <value>1.2853711494252940e-01</value></_>
        <_>
          <depth>1</depth>
          <value>-2.2265642049190640e-01</value></_></nodes></_>
    <_>
      <nodes>
        <_>
          <depth>0</depth>
          <value>2.2405845215585549e-03</value>
          <splits>
            <_><var>118</var>
              <quality>2.6481950655579567e-02</quality>
              <le>7.2599291801452637e-02</le></_></splits></_>
        <_>
          <depth>1</depth>
          <value>-4.0793345848774937e-01</value></_>
        <_>
          <depth>1</depth>
          <value>7.8046917380470898e-02</value></_></nodes></_>
    <_>
      <nodes>
        <_>
          <depth>0</depth>
          <value>-6.2181450736957080e-03</value>
          <splits>
            <_><var>49</var>
              <quality>3.4139633178710938e-02</quality>
              <le>7.4462070465087891e+00</le></_></splits></_>
        <_>
          <depth>1</depth>
          <value>-1.2727582019265585e-01</value></_>
        <_>
          <depth>1</depth>
          <value>3.1898227950216784e-01</value></_></nodes></_>
    <_>
      <nodes>
        <_>
          <depth>0</depth>
          <value>4.5816979718812734e-03</value>
          <splits>
            <_><var>97</var>
              <quality>3.2738599926233292e-02</quality>
              <le>1.8945251464843750e+01</le></_></splits></_>
        <_>
          <depth>1</depth>
          <value>5.5818455681015872e-02</value></_>
        <_>
          <depth>1</depth>
          <value>-8.7882891218242098e-01</value></_></nodes></_>
    <_>
      <nodes>
        <_>
          <depth>0</depth>
          <value>1.6462689257487400e-03</value>
          <splits>
            <_><var>43</var>
              <quality>2.4936169385910034e-02</quality>
              <le>-4.7860498428344727e+00</le></_></splits></_>
        <_>
          <depth>1</depth>
          <value>8.4543918252429628e-01</value></_>
        <_>
          <depth>1</depth>
          <value>-3.8699845277950486e-02</value></_></nodes></_>
    <_>
      <nodes>
        <_>
          <depth>0</depth>
          <value>1.0216587820318969e-03</value>
          <splits>
            <_><var>91</var>
              <quality>2.5886693969368935e-02</quality>
              <le>1.2928339242935181e+00</le></_></splits></_>
        <_>
          <depth>1</depth>
          <value>8.8099690932042424e-02</value></_>
        <_>
          <depth>1</depth>
          <value>-3.4300753200795042e-01</value></_></nodes></_>
    <_>
      <nodes>
        <_>
          <depth>0</depth>
          <value>-1.2880546917792242e-03</value>
          <splits>
            <_><var>91</var>
              <quality>2.2101746872067451e-02</quality>
              <le>-1.6916878223419189e+00</le></_></splits></_>
        <_>
          <depth>1</depth>
          <value>-3.8108897586591273e-01</value></_>
        <_>
          <depth>1</depth>
          <value>6.6582637454261337e-02</value></_></nodes></_>
    <_>
      <nodes>
        <_>
          <depth>0</depth>
          <value>-3.7193074799435739e-03</value>
          <splits>
            <_><var>42</var>
              <quality>2.2736646234989166e-02</quality>
              <le>3.1191372871398926e+00</le></_></splits></_>
        <_>
          <depth>1</depth>
          <value>-8.2365198623570196e-02</value></_>
        <_>
          <depth>1</depth>
          <value>3.2954344102102745e-01</value></_></nodes></_>
    <_>
      <nodes>
        <_>
          <depth>0</depth>
          <value>3.4857315558192892e-03</value>
          <splits>
            <_><var>59</var>
              <quality>2.3792088031768799e-02</quality>
              <le>1.0332142829895020e+01</le></_></splits></_>
        <_>
          <depth>1</depth>
          <value>6.3789354693051512e-02</value></_>
        <_>
          <depth>1</depth>
          <value>-4.6651279278484131e-01</value></_></nodes></_>
    <_>
      <nodes>
        <_>
          <depth>0</depth>
          <value>-4.7485789929342130e-03</value>
          <splits>
            <_><var>106</var>
              <quality>2.6098877191543579e-02</quality>
              <le>-1.3733625411987305e+00</le></_></splits></_>
        <_>
          <depth>1</depth>
          <value>1.2820181228889214e+00</value></_>
        <_>
          <depth>1</depth>
          <value>-3.8395313456666427e-02</value></_></nodes></_>
    <_>
      <nodes>
        <_>
          <depth>0</depth>
          <value>-5.6854524337248173e-04</value>
          <splits>
            <_><var>121</var>
              <quality>2.5992680341005325e-02</quality>
              <le>4.9778732657432556e-01</le></_></splits></_>
        <_>
          <depth>1</depth>
          <value>3.6887309604159445e-02</value></_>
        <_>
          <depth>1</depth>
          <value>-1.0256034331244197e+00</value></_></nodes></_>
    <_>
      <nodes>
        <_>
          <depth>0</depth>
          <value>-1.2287797855829288e-04</value>
          <splits>
            <_><var>14</var>
              <quality>2.5694638490676880e-02</quality>
              <le>1.5265312194824219e+00</le></_></splits></_>
        <_>
          <depth>1</depth>
          <value>4.2911417949835301e-01</value></_>
        <_>
          <depth>1</depth>
          <value>-7.0795130367140635e-02</value></_></nodes></_>
    <_>
      <nodes>
        <_>
          <depth>0</depth>
          <value>-2.0507264941450596e-03</value>
          <splits>
            <_><var>13</var>
              <quality>2.6588279753923416e-02</quality>
              <le>-6.0339212417602539e-01</le></_></splits></_>
        <_>
          <depth>1</depth>
          <value>1.4732296645071027e-01</value></_>
        <_>
          <depth>1</depth>
          <value>-2.0401400847536447e-01</value></_></nodes></_>
    <_>
      <nodes>
        <_>
          <depth>0</depth>
          <value>-2.9648427020525368e-03</value>
          <splits>
            <_><var>85</var>
              <quality>2.5317633524537086e-02</quality>
              <le>1.7101426124572754e+00</le></_></splits></_>
        <_>
          <depth>1</depth>
          <value>-2.3583188147095588e-01</value></_>
        <_>
          <depth>1</depth>
          <value>1.2064165519618936e-01</value></_></nodes></_>
    <_>
      <nodes>
        <_>
          <depth>0</depth>
          <value>5.7316804986672874e-03</value>
          <splits>
            <_><var>128</var>
              <quality>4.6530492603778839e-02</quality>
              <le>2.3854777812957764e+00</le></_></splits></_>
        <_>
          <depth>1</depth>
          <value>2.7310137247098426e-01</value></_>
        <_>
          <depth>1</depth>
          <value>-1.9486155752027845e-01</value></_></nodes></_>
    <_>
      <nodes>
        <_>
          <depth>0</depth>
          <value>-1.9665376414342902e-03</value>
          <splits>
            <_><var>31</var>
              <quality>2.4631394073367119e-02</quality>
              <le>1.2090083956718445e-01</le></_></splits></_>
        <_>
          <depth>1</depth>
          <value>9.4111592056081966e-02</value></_>
        <_>
          <depth>1</depth>
          <value>-2.9598185646632064e-01</value></_></nodes></_>
    <_>
      <nodes>
        <_>
          <depth>0</depth>
          <value>1.2306602993253251e-03</value>
          <splits>
            <_><var>6</var>
              <quality>3.0851824209094048e-02</quality>
              <le>3.5822806358337402e+00</le></_></splits></_>
        <_>
          <depth>1</depth>
          <value>-2.6295171430947883e-01</value></_>
        <_>
          <depth>1</depth>
          <value>1.3476239357308784e-01</value></_></nodes></_>
    <_>
      <nodes>
        <_>
          <depth>0</depth>
          <value>5.5934799119715481e-04</value>
          <splits>
            <_><var>70</var>
              <quality>3.1513165682554245e-02</quality>
              <le>8.3325786590576172e+00</le></_></splits></_>
        <_>
          <depth>1</depth>
          <value>4.3665371238196776e-02</value></_>
        <_>
          <depth>1</depth>
          <value>-1.1338358169211684e+00</value></_></nodes></_>
    <_>
      <nodes>
        <_>
          <depth>0</depth>
          <value>-1.2094744600561862e-04</value>
          <splits>
            <_><var>78</var>
              <quality>2.7641842141747475e-02</quality>
              <le>4.8176264762878418e-01</le></_></splits></_>
        <_>
          <depth>1</depth>
          <value>-5.3899039100924716e-02</value></_>
        <_>
          <depth>1</depth>
          <value>6.4995842967001172e-01</value></_></nodes></_>
    <_>
      <nodes>
        <_>
          <depth>0</depth>
          <value>2.1616832430822932e-03</value>
          <splits>
            <_><var>97</var>
              <quality>3.5608507692813873e-02</quality>
              <le>1.2796409606933594e+01</le></_></splits></_>
        <_>
          <depth>1</depth>
          <value>6.8634408660744620e-02</value></_>
        <_>
          <depth>1</depth>
          <value>-6.8376994620806997e-01</value></_></nodes></_>
    <_>
      <nodes>
        <_>
          <depth>0</depth>
          <value>1.5890575078836124e-03</value>
          <splits>
            <_><var>44</var>
              <quality>3.0797373503446579e-02</quality>
              <le>6.2680826187133789e+00</le></_></splits></_>
        <_>
          <depth>1</depth>
          <value>-9.4324520079689778e-02</value></_>
        <_>
          <depth>1</depth>
          <value>3.7616934343482838e-01</value></_></nodes></_>
    <_>
      <nodes>
        <_>
          <depth>0</depth>
          <value>1.6825663277892544e-03</value>
          <splits>
            <_><var>118</var>
              <quality>4.0432967245578766e-02</quality>
              <le>1.1643938720226288e-01</le></_></splits></_>
        <_>
          <depth>1</depth>
          <value>-3.2646021639509065e-01</value></_>
        <_>
          <depth>1</depth>
          <value>1.4439340452482075e-01</value></_></nodes></_>
    <_>
      <nodes>
        <_>
          <depth>0</depth>
          <value>-6.9520651857651380e-03</value>
          <splits>
            <_><var>56</var>
              <quality>3.0640622600913048e-02</quality>
              <le>-3.6227375268936157e-01</le></_></splits></_>
        <_>
          <depth>1</depth>
          <value>1.6422485477118554e-01</value></_>
        <_>
          <depth>1</depth>
          <value>-2.1036100125157547e-01</value></_></nodes></_>
    <_>
      <nodes>
        <_>
          <depth>0</depth>
          <value>-3.8075815131921771e-03</value>
          <splits>
            <_><var>112</var>
              <quality>3.7197783589363098e-02</quality>
              <le>6.2060117721557617e+00</le></_></splits></_>
        <_>
          <depth>1</depth>
          <value>-8.4040988909346956e-02</value></_>
        <_>
          <depth>1</depth>
          <value>5.6601683094010091e-01</value></_></nodes></_>
    <_>
      <nodes>
        <_>
          <depth>0</depth>
          <value>3.4390525973933854e-03</value>
          <splits>
            <_><var>127</var>
              <quality>3.5048928111791611e-02</quality>
              <le>-3.0353799819946289e+01</le></_></splits></_>
        <_>
          <depth>1</depth>
          <value>-3.7198069843299619e-01</value></_>
        <_>
          <depth>1</depth>
          <value>1.1230565098332786e-01</value></_></nodes></_>
    <_>
      <nodes>
        <_>
          <depth>0</depth>
          <value>-5.7908139572531696e-03</value>
          <splits>
            <_><var>9</var>
              <quality>2.9794406145811081e-02</quality>
              <le>1.4402346611022949e+00</le></_></splits></_>
        <_>
          <depth>1</depth>
          <value>3.5670163390669857e-01</value></_>
        <_>
          <depth>1</depth>
          <value>-1.0114990272534920e-01</value></_></nodes></_>
    <_>
      <nodes>
        <_>
          <depth>0</depth>
          <value>4.8521583899963482e-03</value>
          <splits>
            <_><var>107</var>
              <quality>2.9055221006274223e-02</quality>
              <le>1.5480555295944214e+00</le></_></splits></_>
        <_>
          <depth>1</depth>
          <value>1.0992179403165325e+00</value></_>
        <_>
          <depth>1</depth>
          <value>-3.5728445761785584e-02</value></_></nodes></_>
    <_>
      <nodes>
        <_>
          <depth>0</depth>
          <value>-3.2870024385004635e-04</value>
          <splits>
            <_><var>64</var>
              <quality>4.3617278337478638e-02</quality>
              <le>1.5767841339111328e+00</le></_></splits></_>
        <_>
          <depth>1</depth>
          <value>-8.2065697290383444e-01</value></_>
        <_>
          <depth>1</depth>
          <value>7.1593185094637635e-02</value></_></nodes></_>
    <_>
      <nodes>
        <_>
          <depth>0</depth>
          <value>-3.5716017264954382e-03</value>
          <splits>
            <_><var>31</var>
              <quality>2.9479349032044411e-02</quality>
              <le>1.2751907110214233e-01</le></_></splits></_>
        <_>
          <depth>1</depth>
          <value>9.3620458950197369e-02</value></_>
        <_>
          <depth>1</depth>
          <value>-3.5573193457636065e-01</value></_></nodes></_>
    <_>
      <nodes>
        <_>
          <depth>0</depth>
          <value>-8.9388793713410534e-04</value>
          <splits>
            <_><var>112</var>
              <quality>3.0632216483354568e-02</quality>
              <le>1.0239109992980957e+00</le></_></splits></_>
        <_>
          <depth>1</depth>
          <value>6.5718558345572387e-01</value></_>
        <_>
          <depth>1</depth>
          <value>-5.9918231485856302e-02</value></_></nodes></_>
    <_>
      <nodes>
        <_>
          <depth>0</depth>
          <value>4.0275152893427309e-03</value>
          <splits>
            <_><var>67</var>
              <quality>2.7180528268218040e-02</quality>
              <le>1.8576436042785645e+00</le></_></splits></_>
        <_>
          <depth>1</depth>
          <value>-4.3560232186934549e-02</value></_>
        <_>
          <depth>1</depth>
          <value>7.5615068746588210e-01</value></_></nodes></_>
    <_>
      <nodes>
        <_>
          <depth>0</depth>
          <value>-2.6615821021996858e-03</value>
          <splits>
            <_><var>64</var>
              <quality>3.4863188862800598e-02</quality>
              <le>2.3373842239379883e+00</le></_></splits></_>
        <_>
          <depth>1</depth>
          <value>-3.4396584105308758e-01</value></_>
        <_>
          <depth>1</depth>
          <value>1.1583209473546018e-01</value></_></nodes></_>
    <_>
      <nodes>
        <_>
          <depth>0</depth>
          <value>2.3980679890463481e-03</value>
          <splits>
            <_><var>126</var>
              <quality>2.9740648344159126e-02</quality>
              <le>1.4100105285644531e+01</le></_></splits></_>
        <_>
          <depth>1</depth>
          <value>2.6448560815831018e-01</value></_>
        <_>
          <depth>1</depth>
          <value>-1.2733135140984414e-01</value></_></nodes></_>
    <_>
      <nodes>
        <_>
          <depth>0</depth>
          <value>2.6011593216542241e-03</value>
          <splits>
            <_><var>74</var>
              <quality>2.9664847999811172e-02</quality>
              <le>7.1043305099010468e-02</le></_></splits></_>
        <_>
          <depth>1</depth>
          <value>1.5405537226753385e-01</value></_>
        <_>
          <depth>1</depth>
          <value>-2.2025222998361058e-01</value></_></nodes></_>
    <_>
      <nodes>
        <_>
          <depth>0</depth>
          <value>7.8962968933984131e-04</value>
          <splits>
            <_><var>108</var>
              <quality>2.4668749421834946e-02</quality>
              <le>4.4549298286437988e-01</le></_></splits></_>
        <_>
          <depth>1</depth>
          <value>-9.6682747656239881e-02</value></_>
        <_>
          <depth>1</depth>
          <value>2.9084622264729448e-01</value></_></nodes></_>
    <_>
      <nodes>
        <_>
          <depth>0</depth>
          <value>-3.1965653935377017e-04</value>
          <splits>
            <_><var>103</var>
              <quality>2.5944897904992104e-02</quality>
              <le>-1.1905853450298309e-01</le></_></splits></_>
        <_>
          <depth>1</depth>
          <value>1.6735265098908625e-01</value></_>
        <_>
          <depth>1</depth>
          <value>-1.7566742442425376e-01</value></_></nodes></_>
    <_>
      <nodes>
        <_>
          <depth>0</depth>
          <value>-2.3562504886739610e-04</value>
          <splits>
            <_><var>24</var>
              <quality>2.5328157469630241e-02</quality>
              <le>1.2867276668548584e+00</le></_></splits></_>
        <_>
          <depth>1</depth>
          <value>-3.4622738010378412e-01</value></_>
        <_>
          <depth>1</depth>
          <value>8.4544571547950226e-02</value></_></nodes></_>
    <_>
      <nodes>
        <_>
          <depth>0</depth>
          <value>-3.7413876569723499e-03</value>
          <splits>
            <_><var>23</var>
              <quality>2.7010533958673477e-02</quality>
              <le>6.8983042240142822e-01</le></_></splits></_>
        <_>
          <depth>1</depth>
          <value>-2.9865063902925659e-01</value></_>
        <_>
          <depth>1</depth>
          <value>1.0137009759535466e-01</value></_></nodes></_>
    <_>
      <nodes>
        <_>
          <depth>0</depth>
          <value>7.7536932960462750e-03</value>
          <splits>
            <_><var>117</var>
              <quality>3.2361947000026703e-02</quality>
              <le>8.5745021700859070e-02</le></_></splits></_>
        <_>
          <depth>1</depth>
          <value>1.0852980983623770e-01</value></_>
        <_>
          <depth>1</depth>
          <value>-3.6545131887797910e-01</value></_></nodes></_>
    <_>
      <nodes>
        <_>
          <depth>0</depth>
          <value>-4.0442757448195732e-03</value>
          <splits>
            <_><var>18</var>
              <quality>2.0368842408061028e-02</quality>
              <le>-7.5285589694976807e-01</le></_></splits></_>
        <_>
          <depth>1</depth>
          <value>5.1181776680097935e-01</value></_>
        <_>
          <depth>1</depth>
          <value>-5.1671036003082878e-02</value></_></nodes></_>
    <_>
      <nodes>
        <_>
          <depth>0</depth>
          <value>5.0127679275287381e-04</value>
          <splits>
            <_><var>116</var>
              <quality>2.4268904700875282e-02</quality>
              <le>2.9259664006531239e-03</le></_></splits></_>
        <_>
          <depth>1</depth>
          <value>-6.4818895283313238e-01</value></_>
        <_>
          <depth>1</depth>
          <value>4.7775537953213799e-02</value></_></nodes></_>
    <_>
      <nodes>
        <_>
          <depth>0</depth>
          <value>-1.1464011542190969e-03</value>
          <splits>
            <_><var>125</var>
              <quality>2.0073259249329567e-02</quality>
              <le>1.2085430622100830e+00</le></_></splits></_>
        <_>
          <depth>1</depth>
          <value>-1.3037803458772015e+00</value></_>
        <_>
          <depth>1</depth>
          <value>2.4747265914223909e-02</value></_></nodes></_>
    <_>
      <nodes>
        <_>
          <depth>0</depth>
          <value>-9.3393864949688362e-04</value>
          <splits>
            <_><var>30</var>
              <quality>2.5829017162322998e-02</quality>
              <le>1.0817644186317921e-02</le></_></splits></_>
        <_>
          <depth>1</depth>
          <value>3.5595048482036590e-01</value></_>
        <_>
          <depth>1</depth>
          <value>-8.4922819980640774e-02</value></_></nodes></_>
    <_>
      <nodes>
        <_>
          <depth>0</depth>
          <value>-5.3364478707428279e-03</value>
          <splits>
            <_><var>35</var>
              <quality>2.4987712502479553e-02</quality>
              <le>2.1185873448848724e-01</le></_></splits></_>
        <_>
          <depth>1</depth>
          <value>1.6230220032772408e-01</value></_>
        <_>
          <depth>1</depth>
          <value>-1.7393923237389858e-01</value></_></nodes></_>
    <_>
      <nodes>
        <_>
          <depth>0</depth>
          <value>4.5169536184805842e-03</value>
          <splits>
            <_><var>106</var>
              <quality>2.1491991356015205e-02</quality>
              <le>-6.4476644992828369e-01</le></_></splits></_>
        <_>
          <depth>1</depth>
          <value>5.3439836063840118e-01</value></_>
        <_>
          <depth>1</depth>
          <value>-4.4793298609361751e-02</value></_></nodes></_>
    <_>
      <nodes>
        <_>
          <depth>0</depth>
          <value>1.2296013169546616e-03</value>
          <splits>
            <_><var>71</var>
              <quality>2.3583453148603439e-02</quality>
              <le>1.1529655456542969e+02</le></_></splits></_>
        <_>
          <depth>1</depth>
          <value>2.9598726237243664e-02</value></_>
        <_>
          <depth>1</depth>
          <value>-1.6075104821707324e+00</value></_></nodes></_>
    <_>
      <nodes>
        <_>
          <depth>0</depth>
          <value>2.2872481107676923e-03</value>
          <splits>
            <_><var>40</var>
              <quality>3.7469312548637390e-02</quality>
              <le>7.7259170532226562e+01</le></_></splits></_>
        <_>
          <depth>1</depth>
          <value>-4.6166462652843951e-02</value></_>
        <_>
          <depth>1</depth>
          <value>1.3013537720824768e+00</value></_></nodes></_>
    <_>
      <nodes>
        <_>
          <depth>0</depth>
          <value>-6.4398388578669717e-03</value>
          <splits>
            <_><var>115</var>
              <quality>4.0070343762636185e-02</quality>
              <le>8.6032354831695557e-01</le></_></splits></_>
        <_>
          <depth>1</depth>
          <value>-3.7928526004260699e-01</value></_>
        <_>
          <depth>1</depth>
          <value>1.1921247898066231e-01</value></_></nodes></_>
    <_>
      <nodes>
        <_>
          <depth>0</depth>
          <value>5.9097938574075341e-04</value>
          <splits>
            <_><var>117</var>
              <quality>2.5018300861120224e-02</quality>
              <le>1.9301960244774818e-02</le></_></splits></_>
        <_>
          <depth>1</depth>
          <value>-5.6099017158185127e-01</value></_>
        <_>
          <depth>1</depth>
          <value>5.5233924257722111e-02</value></_></nodes></_>
    <_>
      <nodes>
        <_>
          <depth>0</depth>
          <value>4.2877876639813850e-03</value>
          <splits>
            <_><var>49</var>
              <quality>2.5874096900224686e-02</quality>
              <le>4.6168699264526367e+00</le></_></splits></_>
        <_>
          <depth>1</depth>
          <value>-1.7028810638939332e-01</value></_>
        <_>
          <depth>1</depth>
          <value>1.7211613575592036e-01</value></_></nodes></_>
    <_>
      <nodes>
        <_>
          <depth>0</depth>
          <value>-6.9318249978136503e-04</value>
          <splits>
            <_><var>97</var>
              <quality>3.6459151655435562e-02</quality>
              <le>1.1640632629394531e+01</le></_></splits></_>
        <_>
          <depth>1</depth>
          <value>7.6131490366261989e-02</value></_>
        <_>
          <depth>1</depth>
          <value>-5.8881434307526304e-01</value></_></nodes></_>
    <_>
      <nodes>
        <_>
          <depth>0</depth>
          <value>3.1417674924409519e-03</value>
          <splits>
            <_><var>111</var>
              <quality>2.9643757268786430e-02</quality>
              <le>5.4276621341705322e-01</le></_></splits></_>
        <_>
          <depth>1</depth>
          <value>-4.9088203271425018e-02</value></_>
        <_>
          <depth>1</depth>
          <value>7.4826685464935727e-01</value></_></nodes></_>
    <_>
      <nodes>
        <_>
          <depth>0</depth>
          <value>-3.9584322809405248e-03</value>
          <splits>
            <_><var>84</var>
              <quality>2.6355059817433357e-02</quality>
              <le>-8.5064563751220703e+00</le></_></splits></_>
        <_>
          <depth>1</depth>
          <value>-9.0959374069181309e-02</value></_>
        <_>
          <depth>1</depth>
          <value>3.4670731942576127e-01</value></_></nodes></_>
    <_>
      <nodes>
        <_>
          <depth>0</depth>
          <value>2.2669804853150846e-03</value>
          <splits>
            <_><var>54</var>
              <quality>3.2855059951543808e-02</quality>
              <le>3.0434274673461914e+00</le></_></splits></_>
        <_>
          <depth>1</depth>
          <value>-4.2979098007116084e-01</value></_>
        <_>
          <depth>1</depth>
          <value>9.2134494472343717e-02</value></_></nodes></_>
    <_>
      <nodes>
        <_>
          <depth>0</depth>
          <value>-8.7705784090312934e-04</value>
          <splits>
            <_><var>17</var>
              <quality>2.7215167880058289e-02</quality>
              <le>5.0997340679168701e-01</le></_></splits></_>
        <_>
          <depth>1</depth>
          <value>-9.8551347076075449e-02</value></_>
        <_>
          <depth>1</depth>
          <value>3.2025411052652286e-01</value></_></nodes></_>
    <_>
      <nodes>
        <_>
          <depth>0</depth>
          <value>3.3080255645695751e-03</value>
          <splits>
            <_><var>13</var>
              <quality>3.1243478879332542e-02</quality>
              <le>-1.1298644542694092e+00</le></_></splits></_>
        <_>
          <depth>1</depth>
          <value>3.5787293091664724e-01</value></_>
        <_>
          <depth>1</depth>
          <value>-9.9080884050904636e-02</value></_></nodes></_>
    <_>
      <nodes>
        <_>
          <depth>0</depth>
          <value>-2.3810342888571385e-03</value>
          <splits>
            <_><var>114</var>
              <quality>2.8510229662060738e-02</quality>
              <le>-1.1549314856529236e-01</le></_></splits></_>
        <_>
          <depth>1</depth>
          <value>-2.2366806516968301e+00</value></_>
        <_>
          <depth>1</depth>
          <value>3.0117190383223653e-02</value></_></nodes></_>
    <_>
      <nodes>
        <_>
          <depth>0</depth>
          <value>4.7057353457557669e-03</value>
          <splits>
            <_><var>27</var>
              <quality>2.6706386357545853e-02</quality>
              <le>-9.3590661883354187e-02</le></_></splits></_>
        <_>
          <depth>1</depth>
          <value>1.9561530415259101e-01</value></_>
        <_>
          <depth>1</depth>
          <value>-1.5387455037815678e-01</value></_></nodes></_>
    <_>
      <nodes>
        <_>
          <depth>0</depth>
          <value>1.0721941912604173e-03</value>
          <splits>
            <_><var>48</var>
              <quality>2.6461904868483543e-02</quality>
              <le>-5.5525124073028564e-01</le></_></splits></_>
        <_>
          <depth>1</depth>
          <value>-2.2362707395212508e-01</value></_>
        <_>
          <depth>1</depth>
          <value>1.3491451768765092e-01</value></_></nodes></_>
    <_>
      <nodes>
        <_>
          <depth>0</depth>
          <value>-3.9709544924658767e-03</value>
          <splits>
            <_><var>16</var>
              <quality>2.3482056334614754e-02</quality>
              <le>4.5241575241088867e+00</le></_></splits></_>
        <_>
          <depth>1</depth>
          <value>-1.3423590664528093e-01</value></_>
        <_>
          <depth>1</depth>
          <value>2.0009388418173457e-01</value></_></nodes></_>
    <_>
      <nodes>
        <_>
          <depth>0</depth>
          <value>2.6513984280864484e-03</value>
          <splits>
            <_><var>40</var>
              <quality>3.8287714123725891e-02</quality>
              <le>1.8028526306152344e+01</le></_></splits></_>
        <_>
          <depth>1</depth>
          <value>1.3895323678697352e-01</value></_>
        <_>
          <depth>1</depth>
          <value>-3.2218581997891466e-01</value></_></nodes></_>
    <_>
      <nodes>
        <_>
          <depth>0</depth>
          <value>-2.1676282013227228e-03</value>
          <splits>
            <_><var>74</var>
              <quality>2.3508701473474503e-02</quality>
              <le>5.3485713899135590e-02</le></_></splits></_>
        <_>
          <depth>1</depth>
          <value>2.0330412790759295e-01</value></_>
        <_>
          <depth>1</depth>
          <value>-1.3177793847410327e-01</value></_></nodes></_>
    <_>
      <nodes>
        <_>
          <depth>0</depth>
          <value>1.5876893417916288e-03</value>
          <splits>
            <_><var>116</var>
              <quality>2.0915325731039047e-02</quality>
              <le>2.5831524282693863e-02</le></_></splits></_>
        <_>
          <depth>1</depth>
          <value>8.4567371164392266e-02</value></_>
        <_>
          <depth>1</depth>
          <value>-2.8675526241407406e-01</value></_></nodes></_>
    <_>
      <nodes>
        <_>
          <depth>0</depth>
          <value>-2.5233612436379037e-03</value>
          <splits>
            <_><var>53</var>
              <quality>2.6173802092671394e-02</quality>
              <le>2.0895900726318359e+00</le></_></splits></_>
        <_>
          <depth>1</depth>
          <value>-6.2668583661555449e-02</value></_>
        <_>
          <depth>1</depth>
          <value>5.2503011059643501e-01</value></_></nodes></_>
    <_>
      <nodes>
        <_>
          <depth>0</depth>
          <value>3.9362208538422832e-03</value>
          <splits>
            <_><var>100</var>
              <quality>2.9556341469287872e-02</quality>
              <le>1.4477839469909668e+00</le></_></splits></_>
        <_>
          <depth>1</depth>
          <value>-4.9786477078772751e-01</value></_>
        <_>
          <depth>1</depth>
          <value>7.4772114517373867e-02</value></_></nodes></_>
    <_>
      <nodes>
        <_>
          <depth>0</depth>
          <value>-5.1654300710625659e-03</value>
          <splits>
            <_><var>118</var>
              <quality>2.2081477567553520e-02</quality>
              <le>5.4403606802225113e-02</le></_></splits></_>
        <_>
          <depth>1</depth>
          <value>-9.2254814609051172e-01</value></_>
        <_>
          <depth>1</depth>
          <value>2.8798625600765734e-02</value></_></nodes></_>
    <_>
      <nodes>
        <_>
          <depth>0</depth>
          <value>8.1589593287108720e-04</value>
          <splits>
            <_><var>117</var>
              <quality>2.0571248605847359e-02</quality>
              <le>1.8286925554275513e-01</le></_></splits></_>
        <_>
          <depth>1</depth>
          <value>2.3659291050206827e-02</value></_>
        <_>
          <depth>1</depth>
          <value>-5.7564577324601141e+00</value></_></nodes></_>
    <_>
      <nodes>
        <_>
          <depth>0</depth>
          <value>-1.8692109606920600e-03</value>
          <splits>
            <_><var>49</var>
              <quality>2.1119831129908562e-02</quality>
              <le>1.3059501647949219e+00</le></_></splits></_>
        <_>
          <depth>1</depth>
          <value>-1.8771013869767645e+00</value></_>
        <_>
          <depth>1</depth>
          <value>2.2774686814292532e-02</value></_></nodes></_>
    <_>
      <nodes>
        <_>
          <depth>0</depth>
          <value>-4.5545435788996944e-04</value>
          <splits>
            <_><var>83</var>
              <quality>2.5828614830970764e-02</quality>
              <le>5.5667748451232910e+00</le></_></splits></_>
        <_>
          <depth>1</depth>
          <value>1.3015279007846703e+00</value></_>
        <_>
          <depth>1</depth>
          <value>-3.3744035385342458e-02</value></_></nodes></_>
    <_>
      <nodes>
        <_>
          <depth>0</depth>
          <value>-2.9517087257028853e-03</value>
          <splits>
            <_><var>65</var>
              <quality>2.1821910515427589e-02</quality>
              <le>5.1509582996368408e-01</le></_></splits></_>
        <_>
          <depth>1</depth>
          <value>-1.0160051069246252e-01</value></_>
        <_>
          <depth>1</depth>
          <value>2.4866547391060118e-01</value></_></nodes></_>
    <_>
      <nodes>
        <_>
          <depth>0</depth>
          <value>2.7941107235370808e-03</value>
          <splits>
            <_><var>59</var>
              <quality>2.0669341087341309e-02</quality>
              <le>2.1848154067993164e+00</le></_></splits></_>
        <_>
          <depth>1</depth>
          <value>-5.3447045661104797e-01</value></_>
        <_>
          <depth>1</depth>
          <value>4.9537425039237658e-02</value></_></nodes></_>
    <_>
      <nodes>
        <_>
          <depth>0</depth>
          <value>6.0929559209817836e-04</value>
          <splits>
            <_><var>127</var>
              <quality>2.6581607758998871e-02</quality>
              <le>-1.6098636627197266e+01</le></_></splits></_>
        <_>
          <depth>1</depth>
          <value>-1.4902966367011428e-01</value></_>
        <_>
          <depth>1</depth>
          <value>2.0218756127976031e-01</value></_></nodes></_>
    <_>
      <nodes>
        <_>
          <depth>0</depth>
          <value>-1.0572104133457595e-04</value>
          <splits>
            <_><var>26</var>
              <quality>3.0162625014781952e-02</quality>
              <le>2.0330414772033691e+00</le></_></splits></_>
        <_>
          <depth>1</depth>
          <value>-1.7635091978183326e-01</value></_>
        <_>
          <depth>1</depth>
          <value>1.9444152569623777e-01</value></_></nodes></_>
    <_>
      <nodes>
        <_>
          <depth>0</depth>
          <value>-2.4789129052884802e-03</value>
          <splits>
            <_><var>127</var>
              <quality>2.6290534064173698e-02</quality>
              <le>-2.6922151565551758e+01</le></_></splits></_>
        <_>
          <depth>1</depth>
          <value>-2.7499397984093682e-01</value></_>
        <_>
          <depth>1</depth>
          <value>1.0784870332473247e-01</value></_></nodes></_>
    <_>
      <nodes>
        <_>
          <depth>0</depth>
          <value>-1.6290054552014952e-03</value>
          <splits>
            <_><var>107</var>
              <quality>2.8056116774678230e-02</quality>
              <le>1.4828054428100586e+01</le></_></splits></_>
        <_>
          <depth>1</depth>
          <value>-4.2696633446358406e-02</value></_>
        <_>
          <depth>1</depth>
          <value>9.9127540704616868e-01</value></_></nodes></_>
    <_>
      <nodes>
        <_>
          <depth>0</depth>
          <value>1.1595181380185204e-03</value>
          <splits>
            <_><var>97</var>
              <quality>2.6621162891387939e-02</quality>
              <le>1.3275871276855469e+01</le></_></splits></_>
        <_>
          <depth>1</depth>
          <value>5.4800949862603553e-02</value></_>
        <_>
          <depth>1</depth>
          <value>-6.1965210063813192e-01</value></_></nodes></_>
    <_>
      <nodes>
        <_>
          <depth>0</depth>
          <value>-1.7399770259763909e-03</value>
          <splits>
            <_><var>69</var>
              <quality>2.4920990690588951e-02</quality>
              <le>2.3532199859619141e+00</le></_></splits></_>
        <_>
          <depth>1</depth>
          <value>-1.5214475164864374e-01</value></_>
        <_>
          <depth>1</depth>
          <value>1.8591026398386615e-01</value></_></nodes></_>
    <_>
      <nodes>
        <_>
          <depth>0</depth>
          <value>2.1726409670393947e-03</value>
          <splits>
            <_><var>83</var>
              <quality>2.8694266453385353e-02</quality>
              <le>8.2438316345214844e+00</le></_></splits></_>
        <_>
          <depth>1</depth>
          <value>3.6762797155948662e-01</value></_>
        <_>
          <depth>1</depth>
          <value>-8.9211962056393507e-02</value></_></nodes></_>
    <_>
      <nodes>
        <_>
          <depth>0</depth>
          <value>-5.0416716612052285e-04</value>
          <splits>
            <_><var>59</var>
              <quality>3.0521888285875320e-02</quality>
              <le>3.3423705101013184e+00</le></_></splits></_>
        <_>
          <depth>1</depth>
          <value>-2.5534535951318882e-01</value></_>
        <_>
          <depth>1</depth>
          <value>1.3630836155289236e-01</value></_></nodes></_>
    <_>
      <nodes>
        <_>
          <depth>0</depth>
          <value>9.4983082462160186e-06</value>
          <splits>
            <_><var>126</var>
              <quality>2.9637152329087257e-02</quality>
              <le>1.5988567352294922e+01</le></_></splits></_>
        <_>
          <depth>1</depth>
          <value>2.0935391341898049e-01</value></_>
        <_>
          <depth>1</depth>
          <value>-1.6096183472135517e-01</value></_></nodes></_>
    <_>
      <nodes>
        <_>
          <depth>0</depth>
          <value>-3.2799744734810356e-04</value>
          <splits>
            <_><var>78</var>
              <quality>3.0038200318813324e-02</quality>
              <le>9.4099029898643494e-02</le></_></splits></_>
        <_>
          <depth>1</depth>
          <value>-1.3709628251360411e+00</value></_>
        <_>
          <depth>1</depth>
          <value>3.7685840764284724e-02</value></_></nodes></_>
    <_>
      <nodes>
        <_>
          <depth>0</depth>
          <value>2.0074299041273709e-03</value>
          <splits>
            <_><var>125</var>
              <quality>3.4887377172708511e-02</quality>
              <le>4.4849467277526855e+00</le></_></splits></_>
        <_>
          <depth>1</depth>
          <value>-2.0284395358260651e-01</value></_>
        <_>
          <depth>1</depth>
          <value>1.9628273294254503e-01</value></_></nodes></_>
    <_>
      <nodes>
        <_>
          <depth>0</depth>
          <value>-1.8304911726170536e-05</value>
          <splits>
            <_><var>82</var>
              <quality>3.0167285352945328e-02</quality>
              <le>5.5060319900512695e+00</le></_></splits></_>
        <_>
          <depth>1</depth>
          <value>1.6360627369250577e-01</value></_>
        <_>
          <depth>1</depth>
          <value>-2.0972569639569075e-01</value></_></nodes></_>
    <_>
      <nodes>
        <_>
          <depth>0</depth>
          <value>-2.0770608574758394e-03</value>
          <splits>
            <_><var>99</var>
              <quality>2.2186607122421265e-02</quality>
              <le>-1.1591466665267944e+00</le></_></splits></_>
        <_>
          <depth>1</depth>
          <value>3.9867126874180309e-01</value></_>
        <_>
          <depth>1</depth>
          <value>-6.6888185462848956e-02</value></_></nodes></_>
    <_>
      <nodes>
        <_>
          <depth>0</depth>
          <value>-7.7823599008855515e-04</value>
          <splits>
            <_><var>113</var>
              <quality>2.2874880582094193e-02</quality>
              <le>-6.3472385406494141e+00</le></_></splits></_>
        <_>
          <depth>1</depth>
          <value>7.7933697878005126e-01</value></_>
        <_>
          <depth>1</depth>
          <value>-3.9719928630528971e-02</value></_></nodes></_>
    <_>
      <nodes>
        <_>
          <depth>0</depth>
          <value>-3.6120322589666444e-03</value>
          <splits>
            <_><var>124</var>
              <quality>2.2280944511294365e-02</quality>
              <le>-2.1344305574893951e-01</le></_></splits></_>
        <_>
          <depth>1</depth>
          <value>-2.1689353923902494e-01</value></_>
        <_>
          <depth>1</depth>
          <value>1.1476684146880407e-01</value></_></nodes></_>
    <_>
      <nodes>
        <_>
          <depth>0</depth>
          <value>2.6676603542753756e-03</value>
          <splits>
            <_><var>112</var>
              <quality>2.0992353558540344e-02</quality>
              <le>9.6643787622451782e-01</le></_></splits></_>
        <_>
          <depth>1</depth>
          <value>6.4470566231180848e-01</value></_>
        <_>
          <depth>1</depth>
          <value>-3.8596184018436654e-02</value></_></nodes></_>
    <_>
      <nodes>
        <_>
          <depth>0</depth>
          <value>1.9487031783281537e-03</value>
          <splits>
            <_><var>21</var>
              <quality>2.9857188463211060e-02</quality>
              <le>1.7200555801391602e+00</le></_></splits></_>
        <_>
          <depth>1</depth>
          <value>-5.3177691747059930e-01</value></_>
        <_>
          <depth>1</depth>
          <value>6.9954317467971316e-02</value></_></nodes></_>
    <_>
      <nodes>
        <_>
          <depth>0</depth>
          <value>5.8159703108611306e-04</value>
          <splits>
            <_><var>118</var>
              <quality>2.2006627172231674e-02</quality>
              <le>1.1643938720226288e-01</le></_></splits></_>
        <_>
          <depth>1</depth>
          <value>-2.0483567837206720e-01</value></_>
        <_>
          <depth>1</depth>
          <value>1.2189447402063772e-01</value></_></nodes></_>
    <_>
      <nodes>
        <_>
          <depth>0</depth>
          <value>-4.1405474445722944e-03</value>
          <splits>
            <_><var>78</var>
              <quality>2.5266567245125771e-02</quality>
              <le>4.1321384906768799e-01</le></_></splits></_>
        <_>
          <depth>1</depth>
          <value>-9.6381666739531455e-02</value></_>
        <_>
          <depth>1</depth>
          <value>3.1063536769102207e-01</value></_></nodes></_>
    <_>
      <nodes>
        <_>
          <depth>0</depth>
          <value>3.7665846637533139e-03</value>
          <splits>
            <_><var>56</var>
              <quality>2.8568699955940247e-02</quality>
              <le>1.2722365856170654e+00</le></_></splits></_>
        <_>
          <depth>1</depth>
          <value>7.9092025740163149e-02</value></_>
        <_>
          <depth>1</depth>
          <value>-4.4584589998153951e-01</value></_></nodes></_>
    <_>
      <nodes>
        <_>
          <depth>0</depth>
          <value>-8.4272310737316524e-04</value>
          <splits>
            <_><var>45</var>
              <quality>2.1832913160324097e-02</quality>
              <le>-7.8012108802795410e-02</le></_></splits></_>
        <_>
          <depth>1</depth>
          <value>1.9131278935283677e-01</value></_>
        <_>
          <depth>1</depth>
          <value>-1.2936032740802172e-01</value></_></nodes></_>
    <_>
      <nodes>
        <_>
          <depth>0</depth>
          <value>2.2138739090347124e-03</value>
          <splits>
            <_><var>7</var>
              <quality>2.2825254127383232e-02</quality>
              <le>-3.2305920124053955e-01</le></_></splits></_>
        <_>
          <depth>1</depth>
          <value>-2.6487747322834959e-01</value></_>
        <_>
          <depth>1</depth>
          <value>9.9688011356931658e-02</value></_></nodes></_>
    <_>
      <nodes>
        <_>
          <depth>0</depth>
          <value>1.9539478557438045e-03</value>
          <splits>
            <_><var>15</var>
              <quality>2.3336414247751236e-02</quality>
